{"layers":[{"out_depth":1,"out_sx":1,"out_sy":1,"layer_type":"input"},{"out_depth":20,"out_sx":1,"out_sy":1,"layer_type":"fc","num_inputs":1,"l1_decay_mul":0,"l2_decay_mul":1,"filters":[{"sx":1,"sy":1,"depth":1,"w":{"0":-0.17491625096453153}},{"sx":1,"sy":1,"depth":1,"w":{"0":0.19537883309580625}},{"sx":1,"sy":1,"depth":1,"w":{"0":0.20661526488781787}},{"sx":1,"sy":1,"depth":1,"w":{"0":-0.1465330910387755}},{"sx":1,"sy":1,"depth":1,"w":{"0":-0.21057435715721895}},{"sx":1,"sy":1,"depth":1,"w":{"0":0.2651394327943641}},{"sx":1,"sy":1,"depth":1,"w":{"0":0.20480154740656775}},{"sx":1,"sy":1,"depth":1,"w":{"0":0.16986653609438215}},{"sx":1,"sy":1,"depth":1,"w":{"0":-0.04467165650896729}},{"sx":1,"sy":1,"depth":1,"w":{"0":0.2239980668363889}},{"sx":1,"sy":1,"depth":1,"w":{"0":0.20248993845550098}},{"sx":1,"sy":1,"depth":1,"w":{"0":-0.2272648120337278}},{"sx":1,"sy":1,"depth":1,"w":{"0":0.21007941216326}},{"sx":1,"sy":1,"depth":1,"w":{"0":0.2659817721027486}},{"sx":1,"sy":1,"depth":1,"w":{"0":0.25561400614476154}},{"sx":1,"sy":1,"depth":1,"w":{"0":-0.24727776358793435}},{"sx":1,"sy":1,"depth":1,"w":{"0":0.15050927146428544}},{"sx":1,"sy":1,"depth":1,"w":{"0":0.10102208614565088}},{"sx":1,"sy":1,"depth":1,"w":{"0":0.23910138463790734}},{"sx":1,"sy":1,"depth":1,"w":{"0":-0.2355692277410054}}],"biases":{"sx":1,"sy":1,"depth":20,"w":{"0":0.3105150135290187,"1":0.2690530519797487,"2":0.2845260890648031,"3":0.26159770766702367,"4":0.3758927684617766,"5":0.3651153079557426,"6":0.28204503674861714,"7":0.23395272522664173,"8":0.08220472183830176,"9":0.30851710811348,"10":0.27887784537929966,"11":0.40570795404155496,"12":0.2892865851064395,"13":0.3663030910090678,"14":0.35202750319323023,"15":0.441446041032918,"16":0.20728025846198264,"17":0.13913083920091113,"18":0.3292590555724303,"19":0.4205382684267146}}},{"out_depth":20,"out_sx":1,"out_sy":1,"layer_type":"relu"},{"out_depth":20,"out_sx":1,"out_sy":1,"layer_type":"fc","num_inputs":20,"l1_decay_mul":0,"l2_decay_mul":1,"filters":[{"sx":1,"sy":1,"depth":20,"w":{"0":-0.013539484474056743,"1":0.014878075552875012,"2":0.015733720896228903,"3":-0.011343071731771763,"4":-0.016300468424684012,"5":0.020190332624866716,"6":0.015595594054293522,"7":0.01293530062810606,"8":-0.003458983908723643,"9":0.017057405473937474,"10":0.015419565804565645,"11":-0.017592454755686947,"12":0.01599752195062429,"13":0.020254473658806497,"14":0.01946496357374212,"15":-0.019141653285764358,"16":0.011461255831046038,"17":0.007692804955570393,"18":0.01820754485497482,"19":-0.01823531537039923}},{"sx":1,"sy":1,"depth":20,"w":{"0":-0.05204450040850452,"1":0.058324688850193186,"2":0.06167899861337666,"3":-0.04359889741804572,"4":-0.06265351580357238,"5":0.07914970039383193,"6":0.06113757267098644,"7":0.05070874550231042,"8":-0.013290666296491076,"9":0.06686814451349053,"10":0.06044751354400246,"11":-0.06761952615820888,"12":0.06271311041572357,"13":0.0794011693796995,"14":0.0763061693469366,"15":-0.07357409610923257,"16":0.044930193271924976,"17":0.030157220460807207,"18":0.07137679351625649,"19":-0.0700903836454385}},{"sx":1,"sy":1,"depth":20,"w":{"0":-0.026951387216858576,"1":0.030025388355148386,"2":0.031752161162797825,"3":-0.022578282348128108,"4":-0.03244596806866574,"5":0.040746038224282966,"6":0.03147345073449342,"7":0.026104722186838108,"8":-0.006883473034752251,"9":0.034423513883946676,"10":0.03111819404065023,"11":-0.035017680932265746,"12":0.032284547502019555,"13":0.040875491359548634,"14":0.03928219513407278,"15":-0.038101350464756045,"16":0.023129929205957616,"17":0.01552485592305842,"18":0.03674456037552697,"19":-0.03629725793284795}},{"sx":1,"sy":1,"depth":20,"w":{"0":0.0403153756463862,"1":-0.04544360767353665,"2":-0.0480571271470509,"3":0.03377256884802773,"4":0.04853267031956963,"5":-0.06166938152140025,"6":-0.047635266545141434,"7":-0.039509674479350054,"8":0.010294170564226612,"9":-0.052100261657716876,"10":-0.04709762935232342,"11":0.052379422899636145,"12":-0.04886284797810586,"13":-0.06186532782755967,"14":-0.059453849380757165,"15":0.056991946333058915,"16":-0.03500730595626783,"17":-0.02349696094481763,"18":-0.0556131364066933,"19":0.05429340409416569}},{"sx":1,"sy":1,"depth":20,"w":{"0":0.03178851926594654,"1":-0.03573583150193925,"2":-0.03779103458218999,"3":0.02662979673242955,"4":0.038268163203260826,"5":-0.048495421874329404,"6":-0.03745930628750022,"7":-0.031069511609120783,"8":0.008117365055052927,"9":-0.04097046765174594,"10":-0.03703650157975923,"11":0.04130135570393679,"12":-0.03842464045961547,"13":-0.048649498874554,"14":-0.04675319652897523,"15":0.04493834535488444,"16":-0.02752895359613278,"17":-0.01847749111135034,"18":-0.04373291561848726,"19":0.042810516227800625}},{"sx":1,"sy":1,"depth":20,"w":{"0":0.06372174415633719,"1":-0.07158912117005785,"2":-0.07570627609019512,"3":0.05338072819689991,"4":0.07671045067223316,"5":-0.09715023710157657,"6":-0.07504171617066328,"7":-0.062241126166109766,"8":0.01627185049233403,"9":-0.08207557500121654,"10":-0.07419473046718958,"11":0.0827906245665916,"12":-0.07697556907897869,"13":-0.09745889877920123,"14":-0.09366002402783036,"15":0.0900811337969599,"16":-0.055148395110401704,"17":-0.03701570239212514,"18":-0.0876095839779323,"19":0.08581583457562238}},{"sx":1,"sy":1,"depth":20,"w":{"0":-0.02008052260625702,"1":0.022222577254853583,"2":0.02350061748810315,"3":-0.01682261950149123,"4":-0.024174828601106247,"5":0.03015720097246887,"6":0.023294321378673297,"7":0.019320777445480622,"8":-0.005129319999291859,"9":0.02547773709186618,"10":0.023031386810356633,"11":-0.02609095406497355,"12":0.023894632378175195,"13":0.030253007498811216,"14":0.029073775311055483,"15":-0.028388544938073582,"16":0.017119057828892198,"17":0.011490344902620476,"18":0.02719562461623313,"19":-0.027044344249277017}},{"sx":1,"sy":1,"depth":20,"w":{"0":0.05375291883664271,"1":-0.06090122809727124,"2":-0.06440371370335231,"3":0.0450285191098657,"4":0.06470797508376501,"5":-0.08264616888984774,"6":-0.06383838851583094,"7":-0.0529488718062557,"8":0.01372383733745408,"9":-0.0698221492849543,"10":-0.06311785550650281,"11":0.06983679431161066,"12":-0.0654835174941319,"13":-0.08290878884732818,"14":-0.07967705528749915,"15":0.07598662077942889,"16":-0.046915027401901975,"17":-0.03148945839537884,"18":-0.07452989176532525,"19":0.07238867678859592}},{"sx":1,"sy":1,"depth":20,"w":{"0":0.003179330499156476,"1":-0.0036979728774534366,"2":-0.003910658766668637,"3":0.0026630849546924553,"4":0.0038269947179635946,"5":-0.00501836077555317,"6":-0.0038763267886702695,"7":-0.003215099271650473,"8":0.0008112736337552045,"9":-0.004239675178082195,"10":-0.0038325976010721748,"11":0.004130315276146989,"12":-0.003976210924713316,"13":-0.00503431005300919,"14":-0.004838074192169441,"15":0.004494017472637933,"16":-0.0028487153749432318,"17":-0.001912088227841996,"18":-0.004525525544481875,"19":0.004281237122452001}},{"sx":1,"sy":1,"depth":20,"w":{"0":0.019694306490709444,"1":-0.022095478318739103,"2":-0.023366235739376715,"3":0.016498381663510205,"4":0.02370888033912383,"5":-0.029984742779908372,"6":-0.02316110738360073,"7":-0.01921028058260936,"8":0.005029263356765508,"9":-0.025332063925586592,"10":-0.02289968515560714,"11":0.025588082152197423,"12":-0.023757986203785768,"13":-0.030080004151845675,"14":-0.028907495814942098,"15":0.027841376624689915,"16":-0.017021165747387913,"17":-0.011424641572955873,"18":-0.027040093553226802,"19":0.02652309679421014}},{"sx":1,"sy":1,"depth":20,"w":{"0":-0.01482876375483038,"1":0.016326937555408223,"2":0.017265914755524105,"3":-0.012423131177359574,"4":-0.01785255247118048,"5":0.02215652326576824,"6":0.017114349406509678,"7":0.014194989347231296,"8":-0.0037882220471781108,"9":0.018718498008330614,"10":0.016921175535806212,"11":-0.01926758222631133,"12":0.017555403378488637,"13":0.022226922608513708,"14":0.02136051570487343,"15":-0.020964295317277965,"16":0.012577399398359305,"17":0.008441963819076833,"18":0.01998064269573831,"19":-0.019971638190807724}},{"sx":1,"sy":1,"depth":20,"w":{"0":0.05715751712159881,"1":-0.06453908999680816,"2":-0.06825078750782801,"3":0.04788103902262061,"4":0.06880714966044077,"5":-0.08758294920444044,"6":-0.06765169393314585,"7":-0.05611168643103444,"8":0.01459411601455296,"9":-0.07399287382318437,"10":-0.06688811815356545,"11":0.07426089158099246,"12":-0.06939508121490195,"13":-0.08786122035287308,"14":-0.08443646116991019,"15":0.08080030079216159,"16":-0.04971743155275525,"17":-0.03337041934886262,"18":-0.07898186907202265,"19":0.07697443022271104}},{"sx":1,"sy":1,"depth":20,"w":{"0":0.02137023572082678,"1":-0.023968149775020677,"2":-0.02534658670514868,"3":0.017902355609942924,"4":0.025726471471795007,"5":-0.032526054715152575,"6":-0.02512408996867566,"7":-0.020838435745243373,"8":0.005457278410453384,"9":-0.027479043144751216,"10":-0.024840512518891907,"11":0.02776556650749909,"12":-0.02577155997447345,"13":-0.03262939293230077,"14":-0.031357537657036395,"15":0.030210617598370005,"16":-0.018463771147428257,"17":-0.012392910538925375,"18":-0.029331826578482455,"19":0.028780147199282284}},{"sx":1,"sy":1,"depth":20,"w":{"0":0.04363864415067032,"1":-0.049225642177024506,"2":-0.052056674318186315,"3":0.03655641763101403,"4":0.052533161999943886,"5":-0.06680180884767241,"6":-0.051599714080609475,"7":-0.04279786692700547,"8":0.01114256932565756,"9":-0.056436291956784616,"10":-0.05101732396545576,"11":0.05669702041435763,"12":-0.05292945904064616,"13":-0.06701405874055574,"14":-0.06440190962983776,"15":0.06168973242344041,"16":-0.03792077901030699,"17":-0.025452505391962466,"18":-0.06024153780358479,"19":0.05876875358801853}},{"sx":1,"sy":1,"depth":20,"w":{"0":-0.032624605808323624,"1":0.03642434420733783,"2":0.038519154637322285,"3":-0.027330772306037487,"4":-0.03927549825618334,"5":0.0494297832294388,"6":0.03818101350436513,"7":0.03166810800203617,"8":-0.008332056903349415,"9":0.04175981095949676,"10":0.037750075087502756,"11":-0.04238854230072082,"12":0.03916497524419767,"13":0.04958680330693454,"14":0.04765395453154354,"15":-0.046121277108736654,"16":0.028059325233708365,"17":0.018833467325120354,"18":0.04457551466413105,"19":-0.043937446785395996}},{"sx":1,"sy":1,"depth":20,"w":{"0":0.0470074694611361,"1":-0.05336598185441294,"2":-0.05643511238231167,"3":0.039377665892484176,"4":0.056587433449381136,"5":-0.07242046495821457,"6":-0.055939744149179446,"7":-0.046397570285277204,"8":0.012001139385720686,"9":-0.06118315910310079,"10":-0.05530837150301924,"11":0.06107262088087413,"12":-0.05738129546039241,"13":-0.0726505746393274,"14":-0.06981871955124531,"15":0.06645067696138841,"16":-0.041110296581321745,"17":-0.027593317484647235,"18":-0.06530839635529107,"19":0.06330424949327432}},{"sx":1,"sy":1,"depth":20,"w":{"0":-0.05712373321162687,"1":0.06417547746187162,"2":0.06786626204893022,"3":-0.047853479435565865,"4":-0.068767522317241,"5":0.08708950741728182,"6":0.06727052156303928,"7":0.05579554249438607,"8":-0.014586981243886474,"9":0.07357597236417318,"10":0.06651123922817316,"11":-0.07421814006679431,"12":0.06900411369021558,"13":0.08736621188095484,"14":0.08396074559747445,"15":-0.08075379944172122,"16":0.049437313250512,"17":0.03318242043379979,"18":0.07853687448910272,"19":-0.0769301389377632}},{"sx":1,"sy":1,"depth":20,"w":{"0":0.05087466836508515,"1":-0.057188957954472486,"2":-0.06047795617792798,"3":0.04261853632625668,"4":0.06124467628244972,"5":-0.07760845335626804,"6":-0.059947079124998345,"7":-0.049721322746378784,"8":0.012991112325654655,"9":-0.0655660684689523,"10":-0.05927045998725024,"11":0.0660990105571485,"12":-0.06149192422336591,"13":-0.077855016806535,"14":-0.07482030097276135,"15":0.07191968498034497,"16":-0.04405529368043321,"17":-0.029569980451899906,"18":-0.06998690439431367,"19":0.06851431333266872}},{"sx":1,"sy":1,"depth":20,"w":{"0":0.012749046710153186,"1":-0.014326342753820514,"2":-0.015150256124301995,"3":0.010680120290578939,"4":0.015347774143566046,"5":-0.01944161288157897,"6":-0.015017285870798537,"7":-0.01245563640726691,"8":0.00325556602791765,"9":-0.016424891108598502,"10":-0.014847783736349948,"11":0.016564275421154746,"12":-0.015404276739258843,"13":-0.019503365700711924,"14":-0.018743150164991163,"15":0.018022942117342497,"16":-0.011036232307117125,"17":-0.00740754085257928,"18":-0.017532348245185885,"19":0.017169542505269603}},{"sx":1,"sy":1,"depth":20,"w":{"0":-0.034698863343665676,"1":0.03889873793579106,"2":0.041135849170145775,"3":-0.0290680739637603,"4":-0.04177206489830931,"5":0.05278765535255222,"6":0.04077474685029114,"7":0.03381940336735036,"8":-0.008861055085414637,"9":0.04459667972133155,"10":0.040314524031389326,"11":-0.04508298251348532,"12":0.04182553927499251,"13":0.05295535805871129,"14":0.05089120238348945,"15":-0.04905299313388186,"16":0.029965489434094453,"17":0.020112888805206532,"18":0.04760363132895654,"19":-0.04673034176808301}}],"biases":{"sx":1,"sy":1,"depth":20,"w":{"0":-0.002309027907476716,"1":0.05227224029110258,"2":-0.007471572749033841,"3":-0.024734514061993472,"4":-0.014415999657551859,"5":-0.08597133078128849,"6":-0.005727476640647545,"7":-0.04425127571286624,"8":0.006034042676942676,"9":-0.004902702783582296,"10":-0.006582053603364625,"11":-0.06038840624067222,"12":-0.007857598838379713,"13":-0.03058768935086231,"14":0.00609484640304716,"15":-0.021365856042917256,"16":0.059606484841937264,"17":-0.05674662296848826,"18":-0.006238201870727897,"19":-0.0016991251446054059}}},{"out_depth":20,"out_sx":1,"out_sy":1,"layer_type":"sigmoid"},{"out_depth":1,"out_sx":1,"out_sy":1,"layer_type":"fc","num_inputs":20,"l1_decay_mul":0,"l2_decay_mul":1,"filters":[{"sx":1,"sy":1,"depth":20,"w":{"0":-0.07074789238804194,"1":-0.2770218013527116,"2":-0.14225251879720735,"3":0.21463654876672114,"4":0.1686124230902154,"5":0.3404179886858711,"6":-0.1054362735443757,"7":0.28819611384363564,"8":0.017082393811225807,"9":0.10407765441507749,"10":-0.07758491425473167,"11":0.30594669296880955,"12":0.11294311420177572,"13":0.23262654697895122,"14":-0.17257268214786906,"15":0.2519835433803927,"16":-0.30498915621096545,"17":0.27096122110566667,"18":0.06735052852945754,"19":-0.18414921503266923}}],"biases":{"sx":1,"sy":1,"depth":1,"w":{"0":-0.015711046633523258}}},{"out_depth":1,"out_sx":1,"out_sy":1,"layer_type":"regression","num_inputs":1}]}